Sensor0  [-0.153715, 0.164423, 0.330319, -0.610114, -0.642378, -0.982493, -0.747027, -0.444135, 0.770075, 0.273298, -0.747873, -0.995816, 0.585252, 0.481809, 0.262934, 0.900846, -0.631292, 0.943123, 0.658901, -0.558262, -0.229463, 0.375072, -7.7e-05, -0.991619, 0.101101, 0.048657, 0.518033, -0.019342, 0.974807, -0.930185, 0.84217, 0.833894, 0.976077, 0.731074, -0.436505, -0.749857, 0.447282, 0.250051, -0.652632, -0.506854, 0.714463, -0.781608, -0.145801, 0.138788, -0.612724]
Sensor1  [-0.99639, -0.954398, -0.18814, -0.873413, -0.211008, 0.35114, -0.553564, -0.096986, -0.447506, -0.945995, -0.086601, -0.619426, -0.913524, -0.775755, -0.981632, -0.977238, -0.550635, -0.604988, -0.816707, -0.983051, -0.975626, -0.870962, -0.861339, -0.900366, -0.965061, -0.815547, -0.943636, -0.977468, -0.950746, -0.98822, 0.679052, 0.732704, 0.99983, 0.617737, -0.066434, -0.536102, -0.265036, -0.690879, -0.524027, 0.05221, -0.060823, 0.039311, -0.554001, 0.03851, 0.29264]
Sensor2  [0.025109, 0.826858, -0.422511, -0.841391, -0.692457, 0.031479, -0.524101, -0.157857, 0.126817, 0.108123, -0.672357, 0.225217, 0.651608, 0.692555, -0.756144, -0.1321, 0.78279, 0.419592, -0.418242, -0.363828, 0.471385, -0.66003, 0.606088, -0.604228, -0.150985, 0.092078, 0.868753, -0.822377, -0.592201, -0.460164, -0.241226, 0.40243, -0.38061, 0.087367, -0.737068, -0.400113, -0.629363, 0.658825, 0.230358, -0.34268, -0.233642, -0.384457, -0.281614, -0.654162, -0.007324]